30 128
0 -0.058970 -0.175966 -0.017013 -0.163456 -0.022814 -0.041761 -0.051268 0.014486 0.059139 0.062973 0.090474 0.166527 0.048036 -0.058644 0.105268 -0.169581 -0.038144 -0.088370 0.007123 -0.049714 0.151770 0.027164 0.104239 0.101890 -0.052823 -0.010333 -0.037133 -0.072631 -0.035772 0.015735 0.042993 0.039476 -0.102275 -0.027193 0.058062 -0.177546 0.123770 0.067120 0.036302 -0.051506 -0.131607 -0.016008 -0.029372 0.122968 -0.115013 0.261859 -0.020897 -0.028468 -0.016432 -0.001672 -0.046992 0.066218 -0.050922 0.007113 -0.095808 -0.067583 -0.004514 0.072359 -0.138534 0.031347 0.084362 -0.136875 0.015818 0.174444 -0.040186 0.005126 -0.030512 -0.077946 0.019877 -0.002163 -0.053846 0.062883 0.059192 -0.065381 0.177386 -0.034842 0.064299 -0.032858 -0.060413 -0.026032 -0.104622 0.030044 0.041732 -0.028260 -0.308452 0.019784 0.111975 -0.091588 0.039963 0.004632 0.012781 0.009946 0.077399 -0.011348 -0.087240 0.052348 -0.012981 -0.037328 0.172237 -0.002898 -0.082863 0.009763 0.037257 0.078015 -0.009073 0.017129 0.124397 0.030549 0.008590 -0.044421 -0.042441 0.009825 -0.055557 -0.037829 -0.061716 -0.036876 -0.061552 0.093284 -0.097987 -0.086174 -0.055862 -0.106101 0.060319 -0.159182 -0.113065 0.004509 -0.065489 0.081157
1 -0.078852 -0.190433 -0.040136 -0.172977 -0.016015 -0.080711 -0.029309 0.060748 0.074052 0.049212 0.084915 0.124661 0.061428 -0.152844 0.096938 -0.250205 -0.011581 -0.092226 0.048880 -0.054503 0.177254 0.052853 0.097283 0.140250 -0.006056 -0.021521 -0.041243 -0.060194 -0.026790 0.037884 0.017920 0.042122 -0.121437 -0.000801 0.036019 -0.187011 0.105419 0.049047 0.051649 -0.048657 -0.134328 -0.020037 -0.033169 0.117881 -0.130939 0.212958 -0.036632 -0.045997 0.007374 -0.009210 -0.051981 0.090080 -0.024704 0.051733 -0.131270 -0.058397 0.010335 0.028528 -0.154605 0.056359 0.055355 -0.126536 0.003617 0.193827 -0.049316 -0.030230 0.009995 -0.043211 -0.022336 -0.039088 -0.066424 0.069614 0.064112 -0.082017 0.196428 -0.085659 0.076278 -0.057785 -0.043771 -0.022711 -0.108403 -0.003943 -0.038380 -0.075404 -0.271608 -0.022985 0.078728 -0.051729 0.041867 -0.002882 0.139711 -0.015900 0.134727 -0.023417 -0.175666 0.024262 -0.081085 -0.123859 0.211134 0.027956 -0.232375 -0.015026 -0.000337 0.066175 0.041516 0.092260 0.148179 0.044675 -0.008505 -0.098472 -0.034390 0.047218 0.005607 -0.052863 -0.250550 -0.020872 -0.045516 0.042773 -0.087039 0.013411 -0.145402 -0.125912 0.027445 -0.306725 -0.139221 0.068572 0.022744 0.078817
2 -0.049257 -0.160734 -0.066747 -0.147087 -0.014752 -0.068775 -0.025975 0.062328 0.074392 0.040842 0.081383 0.133714 0.063086 -0.141132 0.096250 -0.226858 -0.042626 -0.092380 0.018339 -0.047590 0.201876 0.040938 0.100834 0.150389 -0.006215 -0.022367 -0.048892 -0.074773 -0.012785 0.033594 0.024907 0.032188 -0.128486 0.005260 0.039958 -0.197223 0.127077 0.054999 0.041061 -0.041395 -0.124630 -0.004005 -0.034869 0.131382 -0.136673 0.240753 -0.030946 -0.039252 0.018106 -0.035671 -0.047437 0.072058 -0.005009 0.049077 -0.126969 -0.051900 0.027066 0.014637 -0.138156 0.050289 0.062928 -0.116406 0.017143 0.192403 -0.036324 -0.009791 -0.012786 -0.036925 -0.000354 -0.039210 -0.076510 0.076076 0.057990 -0.092492 0.207828 -0.059677 0.073458 -0.053997 -0.031785 -0.014237 -0.110788 0.008368 -0.021570 -0.065566 -0.254006 -0.021183 0.088781 -0.055620 0.035452 0.011446 0.124347 -0.020707 0.106318 -0.036054 -0.159985 0.036706 -0.070276 -0.101036 0.162483 0.037376 -0.189940 -0.007275 -0.000327 0.052652 0.012829 0.054600 0.105632 0.026710 -0.010940 -0.083403 -0.012606 0.041388 -0.020078 -0.059885 -0.195313 -0.027551 -0.055487 0.053907 -0.071354 -0.006923 -0.098073 -0.100022 0.051695 -0.249667 -0.112625 0.032759 0.015940 0.084184
7 -0.073737 -0.190079 -0.059413 -0.169059 -0.015302 -0.085285 -0.030098 0.072933 0.089800 0.047955 0.093682 0.142884 0.066586 -0.164457 0.103713 -0.261707 -0.026336 -0.101745 0.038641 -0.055142 0.204107 0.053964 0.104351 0.159108 0.005543 -0.027326 -0.051008 -0.071291 -0.018932 0.042504 0.021609 0.036388 -0.132320 0.003712 0.039713 -0.199445 0.119425 0.057971 0.044310 -0.039445 -0.133650 -0.011316 -0.027991 0.131668 -0.143697 0.227540 -0.027310 -0.041866 0.015864 -0.024120 -0.048902 0.085821 -0.011755 0.053898 -0.129011 -0.058315 0.019201 0.018724 -0.143912 0.051131 0.059830 -0.121725 0.013786 0.194838 -0.046930 -0.013940 -0.002020 -0.040576 -0.007779 -0.048468 -0.073957 0.077165 0.043896 -0.072914 0.161496 -0.049850 0.060073 -0.046486 -0.033645 -0.019464 -0.118250 0.006599 -0.037253 -0.074658 -0.290395 -0.031269 0.094396 -0.056962 0.046221 0.006500 0.148437 -0.024474 0.134018 -0.028090 -0.190819 0.032953 -0.076694 -0.122873 0.200110 0.044811 -0.230516 -0.009094 -0.006432 0.064649 0.021452 0.072728 0.136166 0.031810 -0.016154 -0.105235 -0.021630 0.047023 -0.005279 -0.059484 -0.243368 -0.021389 -0.058447 0.054677 -0.084105 0.008814 -0.130878 -0.120041 0.045525 -0.309005 -0.142369 0.055019 0.029165 0.093840
4 -0.060471 -0.143267 -0.052142 -0.138757 -0.006979 -0.063725 -0.049109 0.070733 0.094511 0.043248 0.089235 0.138977 0.056045 -0.122326 0.091383 -0.199424 -0.026808 -0.088999 0.005944 -0.043919 0.199823 0.040115 0.098110 0.141958 0.004663 -0.018550 -0.040370 -0.054651 -0.020464 0.021076 0.027063 0.033280 -0.125372 0.006934 0.052160 -0.204755 0.127576 0.081350 0.049579 -0.004755 -0.136678 -0.011475 -0.013876 0.149051 -0.150238 0.232828 -0.013743 -0.048572 0.011546 -0.029406 -0.034633 0.063838 -0.001023 0.046736 -0.125766 -0.059802 0.008477 0.025766 -0.143399 0.038595 0.067682 -0.133350 0.024114 0.189702 -0.023400 0.012350 -0.010365 -0.062193 0.008713 -0.052690 -0.061925 0.066568 0.080238 -0.096271 0.229920 -0.061924 0.084521 -0.056146 -0.047517 -0.024530 -0.105371 0.014092 -0.022440 -0.051106 -0.285857 -0.026979 0.105315 -0.068318 0.045689 0.016026 0.086543 -0.015729 0.092938 -0.015085 -0.156096 0.033583 -0.073065 -0.096057 0.171814 0.052449 -0.178905 -0.011368 0.006124 0.068059 -0.006074 0.051109 0.102368 0.023819 -0.031164 -0.093688 -0.011855 0.027462 -0.029160 -0.055559 -0.146452 -0.015229 -0.063014 0.085286 -0.082126 -0.025357 -0.075114 -0.100047 0.052803 -0.220930 -0.126402 0.006476 -0.002498 0.088151
5 -0.061596 -0.161564 -0.032211 -0.145493 -0.011392 -0.060505 -0.034506 0.044262 0.086205 0.054861 0.063171 0.128735 0.047949 -0.085509 0.090607 -0.187788 -0.040791 -0.092254 0.003460 -0.056220 0.193019 0.040248 0.095412 0.123660 -0.008301 -0.009791 -0.024805 -0.033534 -0.023211 0.011622 0.012148 0.049591 -0.095611 -0.007140 0.053278 -0.167256 0.101456 0.069130 0.051496 -0.007739 -0.121048 -0.003058 -0.019195 0.118604 -0.110294 0.220713 -0.011047 -0.026622 -0.000754 -0.008272 -0.053133 0.070211 0.002000 0.050086 -0.126061 -0.067955 -0.009809 0.020690 -0.123595 0.032622 0.072154 -0.126493 0.015080 0.154494 -0.033581 0.002785 0.002256 -0.056376 0.016040 -0.040432 -0.069827 0.054651 0.064299 -0.092471 0.176096 -0.057963 0.081567 -0.051535 -0.050333 -0.041036 -0.100586 0.007898 -0.021346 -0.064438 -0.286492 -0.013049 0.103213 -0.060222 0.033315 0.018246 0.102540 -0.020631 0.110829 -0.030401 -0.171681 0.033720 -0.049269 -0.092535 0.166078 0.044104 -0.148421 0.000440 -0.005729 0.054152 0.002994 0.025669 0.116463 0.008869 -0.020898 -0.097999 -0.038357 0.024205 -0.013736 -0.044518 -0.156265 -0.011558 -0.036754 0.062885 -0.069061 -0.009235 -0.081841 -0.078196 0.038348 -0.195069 -0.106233 0.028345 0.004672 0.071868
8 -0.068165 -0.128476 -0.059610 -0.107617 -0.001501 -0.058559 -0.041214 0.077595 0.090907 0.045363 0.057371 0.115610 0.030264 -0.099107 0.079768 -0.181928 -0.031132 -0.095366 -0.000376 -0.047830 0.214511 0.032588 0.079319 0.140022 0.028130 -0.031032 -0.032704 -0.017234 -0.009809 0.038821 0.032887 0.029455 -0.080670 0.029206 0.041840 -0.160633 0.098732 0.095002 0.040810 0.042296 -0.092494 0.016743 -0.007276 0.110396 -0.123498 0.186993 0.010065 -0.013096 -0.005348 -0.000525 -0.042178 0.036788 0.046293 0.044061 -0.127420 -0.087963 -0.027266 0.003328 -0.104773 0.017143 0.057849 -0.113357 0.047373 0.122119 -0.018752 0.021849 -0.009108 -0.051453 0.044940 -0.066914 -0.090240 0.058684 0.058157 -0.110880 0.247884 -0.045654 0.109016 -0.070150 -0.027268 -0.048083 -0.094874 0.018091 -0.032780 -0.053271 -0.217959 -0.027048 0.102881 -0.048483 0.035583 0.011238 0.137142 -0.052005 0.094786 -0.033038 -0.207663 0.020338 -0.109616 -0.123724 0.196858 0.085458 -0.240911 -0.008392 -0.032213 0.053122 0.009688 0.065043 0.119568 -0.006161 -0.037129 -0.150537 -0.019148 0.055017 -0.022320 -0.075055 -0.232436 -0.014886 -0.075004 0.048436 -0.056479 0.013125 -0.110151 -0.106930 0.064945 -0.312920 -0.150260 0.011658 0.046303 0.088569
6 -0.057331 -0.154714 -0.067913 -0.144353 0.000696 -0.082307 -0.039919 0.083967 0.098167 0.047208 0.091863 0.135000 0.065061 -0.147720 0.102421 -0.238839 -0.036771 -0.097997 0.011524 -0.050609 0.220737 0.050011 0.102253 0.161510 0.021344 -0.019234 -0.039686 -0.063523 -0.001400 0.031683 0.012272 0.022326 -0.144509 0.019591 0.054901 -0.216059 0.128056 0.074443 0.044444 -0.021180 -0.125392 -0.002568 -0.023661 0.143360 -0.163464 0.223499 -0.022114 -0.057928 0.035249 -0.047206 -0.026335 0.071138 0.001303 0.069620 -0.116874 -0.042867 0.034739 -0.004597 -0.134235 0.041387 0.056429 -0.110048 0.015831 0.196569 -0.023317 -0.008554 -0.017653 -0.042457 -0.002516 -0.069750 -0.071091 0.079080 0.056914 -0.096028 0.216626 -0.069443 0.067306 -0.055841 -0.028832 0.001492 -0.133537 0.009763 -0.054532 -0.086522 -0.283176 -0.064222 0.111378 -0.054942 0.050694 0.027193 0.167506 -0.036537 0.135120 -0.033077 -0.214088 0.037969 -0.116095 -0.143169 0.214906 0.055227 -0.275027 -0.013713 -0.001065 0.074602 0.013989 0.111448 0.116520 0.039723 -0.040732 -0.127581 0.024172 0.055967 0.002710 -0.060903 -0.251482 -0.010174 -0.059833 0.041672 -0.060559 0.037698 -0.135123 -0.125127 0.037299 -0.339607 -0.137200 0.067147 0.072461 0.092447
3 -0.073630 -0.138946 -0.072475 -0.114964 -0.001668 -0.071267 -0.027949 0.095694 0.091524 0.030588 0.054862 0.112927 0.038491 -0.130906 0.077212 -0.216939 -0.032274 -0.103554 0.001517 -0.058182 0.227305 0.041418 0.088509 0.165990 0.035382 -0.038349 -0.047252 -0.026052 -0.005483 0.044328 0.028094 0.031691 -0.093266 0.029932 0.033868 -0.160941 0.105266 0.073670 0.034620 0.028662 -0.088119 0.005809 -0.008363 0.115252 -0.123260 0.160866 0.006262 -0.014291 -0.007918 -0.006783 -0.042429 0.036819 0.048813 0.050180 -0.129839 -0.085586 -0.019548 0.001227 -0.103832 0.028819 0.045754 -0.102200 0.045561 0.120149 -0.026496 0.016405 -0.002440 -0.026030 0.032255 -0.071412 -0.100519 0.071050 0.050501 -0.112193 0.236171 -0.049246 0.107885 -0.078693 -0.013983 -0.043346 -0.085459 0.006000 -0.047944 -0.064828 -0.196369 -0.026353 0.087128 -0.032052 0.033315 0.013381 0.159934 -0.056975 0.100001 -0.038402 -0.222885 0.017674 -0.115089 -0.132891 0.191369 0.102418 -0.270459 -0.008049 -0.041869 0.041410 0.016295 0.073646 0.120586 -0.002954 -0.033723 -0.146996 -0.018156 0.067127 -0.009044 -0.085572 -0.281137 -0.027181 -0.073250 0.042928 -0.051230 0.038003 -0.139516 -0.103929 0.052716 -0.366206 -0.160861 0.036889 0.071421 0.107516
21 -0.078221 -0.193116 -0.030876 -0.188177 -0.023448 -0.072888 -0.045891 0.035777 0.075264 0.066511 0.103269 0.145149 0.060734 -0.129721 0.109048 -0.231270 -0.019555 -0.085019 0.046218 -0.051954 0.170408 0.048286 0.093975 0.124592 -0.022589 -0.015842 -0.025460 -0.065865 -0.029206 0.021740 0.021227 0.038221 -0.133810 -0.005724 0.048611 -0.201481 0.115930 0.069211 0.061736 -0.054928 -0.152961 -0.015717 -0.037859 0.125429 -0.141926 0.259369 -0.034651 -0.062619 0.013321 -0.021560 -0.047884 0.097949 -0.037266 0.042333 -0.133711 -0.049230 0.020302 0.027875 -0.165380 0.060764 0.068097 -0.134159 -0.004707 0.219153 -0.045106 -0.033596 0.001869 -0.067854 -0.022306 -0.034354 -0.048077 0.066288 0.048351 -0.039041 0.126912 -0.062292 0.041915 -0.026056 -0.037118 0.005214 -0.123370 0.005529 -0.029011 -0.074977 -0.313743 -0.021847 0.092902 -0.073421 0.043643 -0.004748 0.118680 0.001325 0.132596 -0.018494 -0.157387 0.035346 -0.072967 -0.115355 0.211634 0.007795 -0.206738 -0.020939 0.015114 0.084660 0.031113 0.082946 0.141275 0.049612 -0.005660 -0.093887 -0.026098 0.037036 -0.011330 -0.044041 -0.199215 -0.008259 -0.047959 0.064906 -0.101221 -0.013032 -0.126991 -0.131172 0.032293 -0.262504 -0.127976 0.061925 -0.001804 0.068603
12 -0.101084 -0.199152 0.100369 -0.165924 -0.035153 0.011209 -0.081537 -0.074419 0.098189 0.144518 0.005981 0.195259 -0.003597 0.207201 0.101896 0.004220 -0.119904 -0.103323 -0.117696 -0.123977 0.215893 -0.021998 0.124989 0.013781 -0.111575 0.047667 0.069510 0.095625 -0.061612 -0.096542 0.019363 0.130048 0.112420 -0.073946 0.095379 0.013854 0.031826 0.112925 0.062641 0.098189 -0.074667 0.042460 0.021719 0.028245 0.063577 0.224942 0.085454 0.090556 -0.116692 0.120428 -0.082604 -0.015235 0.036324 -0.050201 -0.064211 -0.123990 -0.197220 0.064109 -0.011422 -0.055241 0.159438 -0.123080 0.025589 -0.118630 -0.006603 0.097411 -0.023294 -0.162868 0.166869 0.049552 -0.043140 -0.058281 0.076037 -0.104014 0.105749 0.054965 0.149227 -0.034594 -0.135883 -0.160540 -0.042320 0.063517 0.119308 0.003414 -0.360042 0.126927 0.148609 -0.124031 0.001442 0.039177 -0.066051 -0.000726 0.064378 -0.025096 -0.096708 0.054423 0.096559 0.027341 0.134533 0.031496 0.122540 0.054840 -0.013056 0.086633 -0.047796 -0.154926 0.164380 -0.092418 0.012148 -0.102685 -0.144338 -0.046245 -0.109818 -0.016561 0.050166 -0.028328 -0.044814 0.168167 -0.112009 -0.162011 0.026381 -0.052575 0.113361 0.032182 -0.099095 -0.089549 -0.171248 0.071195
19 -0.087899 -0.191082 0.094910 -0.155021 -0.026464 0.013610 -0.085536 -0.074971 0.097458 0.144188 -0.006404 0.211271 -0.003692 0.227638 0.107608 0.012631 -0.146861 -0.116312 -0.136961 -0.125554 0.242795 -0.027148 0.136168 0.021839 -0.118024 0.049973 0.062542 0.091496 -0.051479 -0.093261 0.026657 0.125393 0.113966 -0.075007 0.102899 0.007244 0.046813 0.121718 0.054335 0.103475 -0.060579 0.054662 0.023134 0.035675 0.062327 0.245845 0.088131 0.107853 -0.117539 0.117151 -0.080601 -0.029828 0.042319 -0.047891 -0.056902 -0.129847 -0.192322 0.072176 -0.000657 -0.069398 0.168863 -0.125647 0.041408 -0.128804 -0.003091 0.116986 -0.047456 -0.160559 0.192035 0.048941 -0.058798 -0.053623 0.072747 -0.125243 0.136631 0.071182 0.162018 -0.040846 -0.134700 -0.170412 -0.053522 0.077207 0.143726 0.003174 -0.370542 0.134702 0.176276 -0.135494 0.004603 0.052880 -0.085779 -0.012773 0.045445 -0.036159 -0.094119 0.067814 0.108276 0.057294 0.108913 0.035427 0.167599 0.076100 -0.008688 0.077497 -0.070478 -0.180632 0.142124 -0.108963 0.009012 -0.093878 -0.135330 -0.053014 -0.127958 -0.013535 0.094564 -0.038617 -0.052825 0.166813 -0.091408 -0.176367 0.061053 -0.034793 0.121386 0.061042 -0.076273 -0.108371 -0.169680 0.070438
11 -0.103525 -0.202947 0.115376 -0.158877 -0.024371 0.014574 -0.101444 -0.083236 0.092619 0.154115 -0.013811 0.221787 -0.008798 0.256099 0.111492 0.032298 -0.148944 -0.117275 -0.135313 -0.134422 0.247319 -0.024255 0.142657 0.008498 -0.137185 0.054376 0.066998 0.104953 -0.064023 -0.088184 0.039886 0.133887 0.121139 -0.081549 0.116688 0.003310 0.056384 0.140045 0.053006 0.118755 -0.066339 0.052660 0.028430 0.044402 0.057669 0.272723 0.092266 0.128754 -0.135922 0.135139 -0.091205 -0.027665 0.036960 -0.058406 -0.060649 -0.159400 -0.212354 0.097573 -0.016685 -0.081601 0.182110 -0.144594 0.055338 -0.128687 -0.010165 0.132739 -0.053781 -0.177780 0.216409 0.060150 -0.064613 -0.051647 0.074424 -0.134402 0.170831 0.072145 0.170801 -0.047242 -0.145793 -0.183790 -0.043683 0.079608 0.152886 0.014081 -0.363329 0.144653 0.175156 -0.138389 0.008971 0.047178 -0.110590 -0.017017 0.027501 -0.030117 -0.068864 0.053402 0.115939 0.071457 0.104103 0.035232 0.179479 0.074767 -0.005385 0.082065 -0.071447 -0.180895 0.147565 -0.108459 0.010956 -0.089969 -0.146348 -0.058434 -0.141848 -0.000234 0.131526 -0.047930 -0.068146 0.177073 -0.096957 -0.204732 0.091200 -0.031190 0.133589 0.102535 -0.070597 -0.134102 -0.200611 0.064357
14 -0.095674 -0.184854 0.098796 -0.137707 -0.016813 0.013123 -0.110980 -0.061494 0.105881 0.155697 0.004782 0.236974 -0.006415 0.243243 0.111758 0.034284 -0.144850 -0.115920 -0.141511 -0.121157 0.247212 -0.028346 0.142097 0.017416 -0.115157 0.055123 0.060935 0.089849 -0.056428 -0.072858 0.046590 0.113706 0.111939 -0.066041 0.121603 -0.010616 0.065069 0.147721 0.033602 0.127573 -0.059129 0.061206 0.036452 0.054207 0.038110 0.262982 0.103912 0.133339 -0.121486 0.123470 -0.071191 -0.041969 0.039234 -0.066239 -0.029411 -0.151367 -0.206035 0.097306 -0.006918 -0.102765 0.179852 -0.140919 0.070165 -0.131112 0.000431 0.144323 -0.073523 -0.177830 0.221391 0.050497 -0.060696 -0.042948 0.063222 -0.129310 0.185873 0.097943 0.156511 -0.046024 -0.137184 -0.169861 -0.056262 0.100075 0.167716 0.030580 -0.380897 0.127389 0.194253 -0.145400 0.023601 0.054933 -0.118221 -0.025147 0.022543 -0.019793 -0.074170 0.065116 0.110358 0.078655 0.122591 0.043997 0.165151 0.082399 0.003717 0.099597 -0.093428 -0.168476 0.141383 -0.113081 -0.007010 -0.096474 -0.119380 -0.062210 -0.155545 -0.007985 0.133277 -0.051739 -0.098137 0.188386 -0.097394 -0.212194 0.092170 -0.059466 0.159120 0.050023 -0.093096 -0.151729 -0.199216 0.088619
18 -0.070983 -0.153045 0.096701 -0.132825 -0.011426 0.042011 -0.105929 -0.077031 0.138336 0.156678 -0.012180 0.220516 -0.011290 0.288076 0.104078 0.068630 -0.161806 -0.108777 -0.199814 -0.117031 0.278472 -0.043910 0.139839 0.024775 -0.106905 0.063014 0.078344 0.121750 -0.050190 -0.128267 0.017442 0.137623 0.152088 -0.066803 0.113602 0.023543 0.031639 0.143230 0.067368 0.168123 -0.048172 0.081800 0.040479 0.033542 0.078103 0.240987 0.109332 0.115407 -0.114600 0.112910 -0.061953 -0.062670 0.085809 -0.040817 -0.051419 -0.124073 -0.222107 0.046270 0.024638 -0.091195 0.183262 -0.130811 0.050186 -0.181376 0.032056 0.157144 -0.053307 -0.199711 0.231223 0.036732 -0.053945 -0.082746 0.101697 -0.152083 0.146132 0.089534 0.175614 -0.044973 -0.153394 -0.196138 -0.069313 0.101866 0.154259 0.012471 -0.443504 0.126269 0.213710 -0.157312 0.004705 0.083219 -0.096146 -0.020552 0.057517 -0.040098 -0.133854 0.085234 0.099278 0.059090 0.120781 0.067829 0.187900 0.088694 -0.012420 0.088832 -0.101011 -0.218663 0.145919 -0.140469 -0.024370 -0.132260 -0.132587 -0.078013 -0.150879 -0.032906 0.140026 -0.030181 -0.053788 0.197024 -0.085261 -0.193148 0.098963 -0.036337 0.149786 0.105818 -0.079143 -0.160737 -0.191247 0.082052
13 -0.052067 -0.137679 0.086267 -0.128566 -0.012436 0.044186 -0.096097 -0.073111 0.140310 0.144412 -0.012234 0.208316 -0.004803 0.272156 0.098770 0.067962 -0.156062 -0.108412 -0.199166 -0.108028 0.273367 -0.043119 0.134868 0.037823 -0.101833 0.056679 0.063980 0.104671 -0.047509 -0.127156 0.010503 0.133967 0.124420 -0.071906 0.102946 -0.001162 0.043424 0.131372 0.068825 0.147624 -0.052711 0.067470 0.033020 0.049424 0.063972 0.236799 0.094639 0.092474 -0.102601 0.095393 -0.053419 -0.053403 0.078243 -0.027925 -0.056119 -0.109429 -0.197101 0.040137 0.024407 -0.078698 0.169366 -0.123290 0.039028 -0.151926 0.037857 0.140272 -0.047919 -0.178894 0.205434 0.027955 -0.049922 -0.075396 0.128976 -0.177134 0.187718 0.054548 0.186154 -0.059219 -0.163750 -0.198402 -0.066119 0.089138 0.139568 0.007950 -0.433365 0.111205 0.205962 -0.148673 -0.000013 0.087078 -0.092108 -0.014377 0.053661 -0.038093 -0.128700 0.082632 0.092620 0.046424 0.104640 0.064864 0.181359 0.081769 -0.004978 0.074827 -0.098061 -0.214648 0.128504 -0.130443 -0.024864 -0.113168 -0.115307 -0.075833 -0.146464 -0.035433 0.149058 -0.032156 -0.046920 0.206610 -0.083450 -0.194859 0.102130 -0.020472 0.141563 0.120612 -0.075650 -0.151148 -0.181666 0.087335
15 -0.093122 -0.176165 0.088507 -0.140274 -0.024228 0.020038 -0.077138 -0.055685 0.093206 0.125325 -0.011116 0.189201 -0.001879 0.199695 0.088547 0.017576 -0.126116 -0.095846 -0.131409 -0.119491 0.225712 -0.025864 0.131890 0.022141 -0.113054 0.048586 0.051577 0.091462 -0.061119 -0.085960 0.029759 0.129434 0.127697 -0.064487 0.084933 0.022081 0.034001 0.094453 0.045071 0.109726 -0.057291 0.044935 0.028663 0.029172 0.071547 0.201393 0.081094 0.115997 -0.120924 0.121725 -0.078609 -0.039273 0.052415 -0.059493 -0.046652 -0.132345 -0.209053 0.070544 -0.002517 -0.069509 0.157900 -0.115922 0.044558 -0.151222 0.004376 0.125448 -0.034601 -0.152312 0.188748 0.060541 -0.050038 -0.062530 0.109980 -0.166820 0.231327 0.047356 0.198730 -0.072398 -0.156269 -0.193738 -0.023150 0.068944 0.138205 0.020452 -0.310018 0.137537 0.131821 -0.115998 0.002327 0.044950 -0.083040 -0.012264 0.036289 -0.022295 -0.074558 0.045096 0.096677 0.043912 0.118389 0.054811 0.125152 0.060175 -0.017236 0.077865 -0.052547 -0.161810 0.160834 -0.099587 0.004857 -0.098074 -0.145255 -0.047641 -0.133022 -0.030592 0.054531 -0.054485 -0.072212 0.184006 -0.115168 -0.182426 0.046431 -0.059725 0.140082 0.022673 -0.102356 -0.127572 -0.186649 0.088833
17 -0.093362 -0.163681 0.071887 -0.109831 -0.021225 -0.001646 -0.086278 -0.024873 0.118705 0.144234 0.003189 0.203084 -0.001677 0.185632 0.089105 0.011278 -0.124735 -0.110230 -0.122897 -0.101696 0.231371 -0.031385 0.125073 0.027247 -0.066419 0.046842 0.048147 0.084416 -0.040318 -0.040098 0.032720 0.099552 0.119728 -0.047818 0.086950 0.003905 0.043941 0.127231 0.017779 0.138081 -0.031156 0.057900 0.032813 0.030921 0.044660 0.178834 0.103367 0.131952 -0.110105 0.121382 -0.058461 -0.056089 0.062522 -0.065247 -0.006499 -0.139008 -0.208755 0.060304 0.030488 -0.112847 0.148897 -0.098851 0.067493 -0.162213 0.018222 0.122838 -0.056535 -0.140003 0.204747 0.040184 -0.055820 -0.051799 0.065221 -0.139592 0.201640 0.077377 0.150875 -0.059958 -0.112838 -0.160514 -0.028303 0.083784 0.130530 0.020074 -0.283784 0.095459 0.155851 -0.105418 0.013729 0.045890 -0.053143 -0.040919 0.034648 -0.011500 -0.107702 0.037501 0.073299 0.026390 0.145356 0.069722 0.066670 0.062299 -0.025619 0.088790 -0.058684 -0.120972 0.143339 -0.116029 -0.017367 -0.126864 -0.095020 -0.032466 -0.116269 -0.028748 0.000334 -0.047430 -0.108323 0.169473 -0.087670 -0.157853 0.034470 -0.078502 0.155197 -0.073131 -0.129580 -0.115827 -0.133911 0.100423
22 -0.072479 -0.192190 -0.044963 -0.160844 -0.023561 -0.072741 -0.034950 0.052948 0.069052 0.060015 0.083931 0.155792 0.057532 -0.122927 0.103995 -0.227328 -0.042710 -0.106886 0.030129 -0.054703 0.192315 0.035321 0.107797 0.136229 -0.020374 -0.017246 -0.048477 -0.072156 -0.020146 0.051245 0.036667 0.036737 -0.100213 -0.006081 0.041965 -0.179591 0.122708 0.063050 0.026505 -0.037688 -0.111570 -0.009901 -0.034045 0.117436 -0.115664 0.233198 -0.019064 -0.008154 -0.014076 0.002939 -0.055935 0.058844 -0.019073 0.014021 -0.097009 -0.077082 -0.013106 0.044571 -0.120164 0.019666 0.073971 -0.118381 0.028357 0.153218 -0.038390 -0.003340 -0.025137 -0.047432 0.030591 -0.014700 -0.077995 0.067711 0.043941 -0.087932 0.207397 -0.035737 0.076767 -0.051409 -0.038216 -0.031653 -0.094217 0.016992 0.014001 -0.050549 -0.243467 0.002998 0.094579 -0.061167 0.035936 0.001679 0.092605 -0.023157 0.089644 -0.025052 -0.135463 0.029727 -0.053373 -0.087641 0.201601 0.027068 -0.187302 0.002775 0.001914 0.071668 0.019694 0.058926 0.140090 0.018042 0.002526 -0.091433 -0.031355 0.043555 -0.037966 -0.057389 -0.210894 -0.045501 -0.088410 0.078049 -0.095662 -0.044319 -0.113152 -0.133064 0.075716 -0.302110 -0.153840 0.027620 -0.011413 0.104201
16 -0.076450 -0.174913 0.078162 -0.155324 -0.021989 0.007034 -0.093164 -0.069917 0.084969 0.137031 0.015458 0.206490 0.004272 0.187762 0.114337 -0.007001 -0.127553 -0.106556 -0.107773 -0.101868 0.214168 -0.017755 0.124107 0.024396 -0.116637 0.044062 0.046514 0.054113 -0.050660 -0.073512 0.035705 0.104805 0.061068 -0.068178 0.103925 -0.045832 0.073127 0.122827 0.053941 0.070098 -0.075570 0.046846 0.005403 0.058360 0.013730 0.270096 0.055753 0.080043 -0.093990 0.087820 -0.062492 -0.008314 0.011593 -0.037026 -0.055453 -0.110776 -0.141667 0.081187 -0.037610 -0.056884 0.150346 -0.138837 0.037102 -0.048153 -0.001738 0.090729 -0.056602 -0.153451 0.161688 0.042216 -0.049064 -0.032713 0.075698 -0.116366 0.162966 0.046979 0.136315 -0.038544 -0.126930 -0.133733 -0.067022 0.072519 0.131444 -0.002012 -0.363442 0.103261 0.172371 -0.131394 0.019726 0.043663 -0.089794 -0.006368 0.032239 -0.025245 -0.064059 0.062516 0.079779 0.053163 0.109054 0.003758 0.133341 0.063734 0.021485 0.080425 -0.059585 -0.131877 0.119021 -0.077785 0.006887 -0.070104 -0.099470 -0.044263 -0.130960 -0.008212 0.108196 -0.038718 -0.067075 0.154835 -0.088514 -0.177577 0.064701 -0.051630 0.116113 0.056121 -0.067222 -0.103497 -0.169629 0.065066
10 -0.059384 -0.157909 0.068116 -0.147026 -0.018002 0.013910 -0.091631 -0.064150 0.108270 0.129142 0.032170 0.210050 0.012533 0.189049 0.110894 0.003361 -0.128074 -0.093446 -0.130855 -0.094521 0.218151 -0.020809 0.127813 0.035829 -0.102818 0.046719 0.050456 0.043973 -0.042535 -0.095858 0.017818 0.095789 0.051839 -0.065715 0.104224 -0.047972 0.071998 0.116245 0.054650 0.071409 -0.082842 0.045118 0.015486 0.069266 0.011467 0.267289 0.065505 0.056194 -0.069837 0.058616 -0.046922 -0.011228 0.018689 -0.029535 -0.048233 -0.083598 -0.126271 0.055227 -0.027731 -0.047569 0.153399 -0.122083 0.023611 -0.049631 0.008724 0.100885 -0.058508 -0.162140 0.151692 0.031752 -0.030347 -0.039479 0.087582 -0.113011 0.134913 0.057856 0.125013 -0.028855 -0.136776 -0.128628 -0.088275 0.079369 0.120810 -0.006443 -0.421455 0.085781 0.184822 -0.145698 0.020207 0.061608 -0.079299 0.003725 0.061714 -0.024506 -0.089410 0.083413 0.080311 0.038019 0.118185 0.021265 0.127682 0.061729 0.022700 0.095230 -0.079556 -0.141719 0.119602 -0.070206 -0.008414 -0.077028 -0.079740 -0.056603 -0.120549 -0.015275 0.118885 -0.025878 -0.050627 0.172693 -0.091609 -0.169597 0.067176 -0.049855 0.111667 0.068157 -0.063025 -0.096025 -0.160270 0.073513
9 -0.073680 -0.176263 -0.066266 -0.170943 -0.014010 -0.089807 -0.038458 0.076772 0.074898 0.038293 0.106805 0.131049 0.066217 -0.184192 0.104384 -0.272628 -0.005130 -0.086383 0.054064 -0.044695 0.164072 0.065751 0.098479 0.144199 0.007801 -0.025464 -0.048397 -0.086324 -0.020071 0.041267 0.025101 0.021232 -0.172012 0.003899 0.058829 -0.226851 0.131411 0.061697 0.046384 -0.059247 -0.156680 -0.028069 -0.036534 0.148350 -0.175732 0.229128 -0.037724 -0.077867 0.024035 -0.042436 -0.040548 0.097432 -0.040264 0.061750 -0.127018 -0.047403 0.043265 0.030171 -0.171005 0.063583 0.047614 -0.129648 0.002661 0.244123 -0.046638 -0.032029 -0.001883 -0.044026 -0.034754 -0.054905 -0.065108 0.096040 0.056333 -0.063166 0.183862 -0.081166 0.050647 -0.041246 -0.031422 0.015834 -0.121757 -0.003820 -0.055379 -0.085641 -0.292293 -0.046161 0.096558 -0.057945 0.052135 0.003014 0.132426 -0.015912 0.131359 -0.016821 -0.176602 0.030651 -0.094917 -0.125183 0.211708 0.023733 -0.257047 -0.026189 0.013189 0.076280 0.029422 0.116630 0.120909 0.063592 -0.023385 -0.094079 -0.000707 0.058292 0.011325 -0.050176 -0.222953 -0.012286 -0.051355 0.039077 -0.081727 0.032662 -0.143765 -0.120672 0.012619 -0.305515 -0.131650 0.084454 0.042838 0.079903
20 -0.069131 -0.164118 -0.042832 -0.143294 -0.021704 -0.060670 -0.036136 0.057616 0.073520 0.048777 0.071235 0.139328 0.054168 -0.104856 0.089362 -0.193597 -0.040392 -0.081346 0.007616 -0.061202 0.177132 0.036398 0.106687 0.121617 -0.016476 -0.007684 -0.030453 -0.056982 -0.030800 0.020567 0.028749 0.044185 -0.097836 -0.009031 0.057890 -0.162241 0.116894 0.052713 0.025010 -0.026961 -0.128554 -0.009366 -0.019545 0.121355 -0.110363 0.212445 -0.004090 -0.014060 -0.009721 -0.007057 -0.055132 0.058170 -0.008843 0.018076 -0.096907 -0.070842 -0.019888 0.036766 -0.126367 0.024318 0.076601 -0.118463 0.023262 0.140497 -0.032425 0.009721 -0.013759 -0.051786 0.022273 -0.014999 -0.065493 0.061806 0.063934 -0.091468 0.214906 -0.039293 0.088522 -0.055595 -0.050253 -0.029875 -0.078284 0.013902 0.008051 -0.045516 -0.258060 0.011993 0.085404 -0.060366 0.031854 0.013543 0.075259 -0.016848 0.089265 -0.017817 -0.132230 0.029131 -0.032906 -0.075768 0.164864 0.042987 -0.156938 -0.006150 0.000673 0.069959 0.001690 0.037818 0.118363 0.016528 -0.007877 -0.079485 -0.036850 0.032124 -0.038932 -0.049742 -0.148640 -0.040732 -0.072032 0.086235 -0.090863 -0.036329 -0.080254 -0.096147 0.063651 -0.215861 -0.118429 0.006975 -0.032381 0.093291
26 -0.068944 -0.194912 -0.028959 -0.175369 -0.024761 -0.069438 -0.022391 0.036937 0.044237 0.044424 0.074480 0.127501 0.058233 -0.129375 0.092799 -0.231874 -0.016567 -0.093264 0.046919 -0.057205 0.161586 0.046185 0.103199 0.128585 -0.036450 -0.024123 -0.048965 -0.068118 -0.035643 0.041264 0.032128 0.044653 -0.114400 -0.020749 0.031334 -0.176683 0.115946 0.037951 0.042427 -0.073001 -0.133147 -0.029404 -0.041799 0.114262 -0.111405 0.235059 -0.039079 -0.033473 -0.016929 0.007178 -0.062386 0.085279 -0.042395 0.030973 -0.130978 -0.068952 0.005110 0.059332 -0.154626 0.058434 0.063154 -0.130469 0.004251 0.185145 -0.062265 -0.028845 0.002821 -0.042182 -0.017648 -0.013660 -0.074589 0.076048 0.051600 -0.066616 0.169194 -0.069280 0.070922 -0.048029 -0.041768 -0.027578 -0.093443 -0.004989 -0.005098 -0.053245 -0.245615 0.019259 0.068351 -0.056226 0.029442 -0.014160 0.086045 -0.003348 0.105228 -0.023190 -0.121856 0.029293 -0.048182 -0.085158 0.173827 0.004433 -0.168019 -0.007797 0.011198 0.052982 0.036143 0.061619 0.137142 0.045244 0.018587 -0.049608 -0.054458 0.035783 -0.008087 -0.044014 -0.191491 -0.039340 -0.041397 0.046483 -0.086848 -0.024854 -0.124167 -0.107394 0.024625 -0.254763 -0.119445 0.061880 -0.013379 0.072554
29 -0.079780 -0.193297 -0.058566 -0.176474 -0.020118 -0.089675 -0.020624 0.066910 0.069211 0.040761 0.083533 0.118010 0.061217 -0.179876 0.096283 -0.273088 -0.015200 -0.103423 0.060283 -0.055969 0.196378 0.056502 0.091010 0.155732 0.000082 -0.034660 -0.048467 -0.062111 -0.020406 0.047925 0.022063 0.039797 -0.137348 0.004901 0.030312 -0.205550 0.119721 0.059904 0.062310 -0.050290 -0.142188 -0.020607 -0.041740 0.129353 -0.142334 0.238255 -0.041151 -0.054672 0.003999 -0.014098 -0.067624 0.097564 -0.012483 0.062567 -0.170821 -0.070755 0.017724 0.023345 -0.166702 0.071703 0.058461 -0.137644 0.008243 0.220094 -0.059308 -0.037467 0.016424 -0.033743 -0.025509 -0.050051 -0.088241 0.084655 0.054440 -0.075805 0.189458 -0.092108 0.078795 -0.056509 -0.022566 -0.015433 -0.106912 -0.016751 -0.056358 -0.085424 -0.240282 -0.024342 0.071023 -0.044642 0.035167 -0.012609 0.161951 -0.021120 0.128037 -0.035739 -0.187077 0.020504 -0.096204 -0.134608 0.193432 0.035197 -0.247336 -0.022655 -0.013930 0.049253 0.047501 0.088572 0.132326 0.041236 -0.003177 -0.100144 -0.035863 0.058082 0.014525 -0.058166 -0.274423 -0.015568 -0.036991 0.026579 -0.076631 0.031800 -0.152568 -0.107090 0.015877 -0.312205 -0.134279 0.080211 0.045691 0.070865
28 -0.080810 -0.187278 -0.054009 -0.166524 -0.020648 -0.081806 -0.022590 0.063435 0.061082 0.039728 0.079786 0.123081 0.055800 -0.163523 0.094662 -0.257257 -0.018236 -0.101189 0.055983 -0.052779 0.183480 0.053951 0.092380 0.145528 -0.006276 -0.033575 -0.055415 -0.065193 -0.019639 0.053177 0.033408 0.037349 -0.128678 0.006505 0.031378 -0.196425 0.121265 0.058685 0.049523 -0.044344 -0.129515 -0.019486 -0.038428 0.123492 -0.142949 0.221011 -0.039088 -0.041809 -0.002524 -0.012360 -0.062474 0.086523 -0.013158 0.047543 -0.145212 -0.074227 0.012901 0.030302 -0.158052 0.060622 0.050689 -0.127987 0.018370 0.204655 -0.053753 -0.029240 0.005591 -0.030768 -0.016986 -0.047065 -0.086264 0.084723 0.038376 -0.069344 0.175498 -0.070151 0.062225 -0.050868 -0.020117 -0.011772 -0.097682 -0.011312 -0.044929 -0.074458 -0.219357 -0.018965 0.069727 -0.040557 0.040402 -0.012755 0.147012 -0.023939 0.111021 -0.030250 -0.166756 0.013873 -0.094898 -0.123716 0.191771 0.034863 -0.248072 -0.021047 -0.013972 0.049177 0.048371 0.095929 0.133021 0.044000 -0.003497 -0.098064 -0.028682 0.066786 0.005246 -0.061604 -0.273315 -0.025651 -0.056816 0.029580 -0.079071 0.023201 -0.154156 -0.121463 0.030517 -0.337062 -0.147729 0.073762 0.045979 0.083193
23 -0.070595 -0.168644 -0.056983 -0.147520 -0.020000 -0.067336 -0.024070 0.077364 0.073801 0.030270 0.081015 0.127018 0.058049 -0.156866 0.077993 -0.226568 -0.012320 -0.084508 0.037527 -0.045365 0.171340 0.044348 0.098068 0.143961 -0.003641 -0.026879 -0.059587 -0.071133 -0.032996 0.047290 0.030816 0.039743 -0.144547 0.004096 0.019642 -0.209272 0.126853 0.034839 0.043890 -0.062688 -0.143871 -0.033096 -0.036048 0.138634 -0.143062 0.217436 -0.046299 -0.054195 -0.007853 -0.010312 -0.056368 0.073698 -0.011500 0.031394 -0.130703 -0.077952 -0.005649 0.043292 -0.153602 0.046065 0.061237 -0.133395 0.020522 0.186663 -0.042969 -0.008152 0.006639 -0.035781 -0.008782 -0.028879 -0.072420 0.074970 0.082819 -0.102118 0.240317 -0.070006 0.099120 -0.069276 -0.047693 -0.038580 -0.078069 -0.005459 -0.019513 -0.046661 -0.232333 -0.000475 0.063474 -0.046051 0.033429 -0.008342 0.101338 -0.012880 0.096180 -0.011910 -0.145189 0.015986 -0.067207 -0.113325 0.187779 0.051242 -0.220748 -0.021538 -0.001946 0.054055 0.026417 0.065905 0.135429 0.036968 -0.008485 -0.080847 -0.043092 0.042347 -0.014206 -0.069932 -0.227625 -0.039652 -0.069816 0.078663 -0.101884 -0.019593 -0.126625 -0.120280 0.050097 -0.302212 -0.153314 0.033009 -0.004538 0.102940
25 -0.074370 -0.167361 -0.044590 -0.148524 -0.016433 -0.070837 -0.027143 0.060655 0.071087 0.040160 0.062879 0.101671 0.047800 -0.124161 0.079317 -0.219255 -0.014112 -0.092463 0.032599 -0.055087 0.190207 0.047428 0.091454 0.138473 0.002587 -0.030024 -0.034413 -0.033855 -0.023304 0.037056 0.018777 0.042779 -0.111471 0.003244 0.034456 -0.176394 0.102208 0.067520 0.053917 -0.018037 -0.129308 -0.016110 -0.025883 0.119736 -0.122791 0.212379 -0.020985 -0.041104 -0.002735 -0.005262 -0.063465 0.079038 0.002868 0.062033 -0.161782 -0.080835 -0.001699 0.017325 -0.145551 0.059828 0.056351 -0.120541 0.012236 0.176305 -0.049499 -0.019899 0.016013 -0.037894 -0.010388 -0.048152 -0.084362 0.072143 0.070501 -0.088305 0.202592 -0.093051 0.091227 -0.058816 -0.027724 -0.030480 -0.091568 -0.014981 -0.051600 -0.072318 -0.225304 -0.016275 0.072434 -0.046108 0.020558 -0.005339 0.130600 -0.023297 0.114938 -0.037824 -0.181096 0.016984 -0.084942 -0.123802 0.174404 0.048679 -0.218676 -0.020257 -0.018795 0.042258 0.036715 0.068462 0.124100 0.031280 -0.008927 -0.103412 -0.038862 0.044638 0.016850 -0.053357 -0.230578 -0.013169 -0.026854 0.029941 -0.064344 0.023749 -0.123721 -0.082507 0.015221 -0.256768 -0.120423 0.063299 0.038064 0.062831
24 -0.070062 -0.199384 -0.040479 -0.180795 -0.032166 -0.078580 -0.023958 0.044812 0.062572 0.054115 0.102780 0.136270 0.068158 -0.167919 0.102871 -0.255197 -0.013022 -0.087900 0.069399 -0.042545 0.148785 0.046308 0.092214 0.128358 -0.019398 -0.018389 -0.046902 -0.091769 -0.029597 0.047095 0.022491 0.034764 -0.137177 -0.010925 0.028246 -0.200208 0.121133 0.040575 0.046300 -0.085315 -0.146647 -0.024329 -0.047770 0.121517 -0.134408 0.243439 -0.049738 -0.052682 0.012833 -0.018578 -0.056424 0.102574 -0.049992 0.037432 -0.124557 -0.045971 0.027751 0.036722 -0.164435 0.061298 0.060179 -0.129952 -0.002553 0.226322 -0.055017 -0.050097 0.004385 -0.039035 -0.039030 -0.020929 -0.053070 0.072994 0.048141 -0.049927 0.160229 -0.076720 0.044159 -0.038218 -0.035850 0.003524 -0.103358 -0.002779 -0.019924 -0.065439 -0.264839 -0.014723 0.067834 -0.055551 0.039795 -0.016784 0.116537 0.004172 0.121666 -0.015804 -0.129221 0.029793 -0.056361 -0.108939 0.199694 -0.001939 -0.200237 -0.016860 0.012505 0.073195 0.040931 0.080048 0.143417 0.052809 0.010476 -0.070389 -0.034079 0.042593 -0.010627 -0.048309 -0.223853 -0.025091 -0.055191 0.063073 -0.108096 -0.021829 -0.132984 -0.136195 0.043149 -0.280298 -0.135844 0.061096 -0.011435 0.080642
27 -0.064100 -0.188067 -0.042378 -0.180277 -0.018990 -0.065517 -0.029829 0.041318 0.072010 0.045779 0.085305 0.137146 0.054129 -0.120505 0.103699 -0.233541 -0.023379 -0.099482 0.028533 -0.057325 0.181528 0.049634 0.095972 0.140849 -0.019738 -0.027148 -0.045255 -0.062271 -0.029506 0.014312 0.021609 0.043484 -0.129206 -0.015001 0.046630 -0.192013 0.115085 0.056205 0.060990 -0.053843 -0.141951 -0.020743 -0.035000 0.128886 -0.127638 0.241532 -0.030547 -0.059128 0.001209 -0.017828 -0.052336 0.091316 -0.027592 0.052286 -0.143406 -0.055940 0.019456 0.035878 -0.148513 0.065865 0.059934 -0.133732 0.000483 0.205805 -0.050227 -0.020265 0.004732 -0.050496 -0.018023 -0.042188 -0.071859 0.074838 0.047728 -0.056767 0.109537 -0.054337 0.057078 -0.033856 -0.043771 -0.022111 -0.115979 -0.000406 -0.026024 -0.066634 -0.310918 -0.009099 0.101975 -0.066944 0.037617 0.004816 0.102329 -0.006223 0.121117 -0.027657 -0.163719 0.043131 -0.061353 -0.103169 0.181792 0.019969 -0.175137 -0.007093 0.009846 0.053423 0.017601 0.048845 0.127348 0.035476 -0.005942 -0.074715 -0.039384 0.036863 -0.009776 -0.054890 -0.180042 -0.016277 -0.031025 0.057235 -0.086772 -0.004862 -0.120020 -0.094769 0.024038 -0.241643 -0.125858 0.060011 0.007199 0.080358
